digraph Tree {
node [shape=box, style="filled", color="black", fontname="helvetica"] ;
edge [fontname="helvetica"] ;
0 [label="SMA_10 <= 0.392\nentropy = 1.087\nsamples = 3441\nvalue = [355, 2534, 552]\nclass = hold", fillcolor="#77eda9"] ;
1 [label="SMA_10 <= 0.272\nentropy = 1.485\nsamples = 287\nvalue = [50, 132, 105]\nclass = hold", fillcolor="#e2fbec"] ;
0 -> 1 [labeldistance=2.5, labelangle=45, headlabel="True"] ;
2 [label="entropy = 1.201\nsamples = 45\nvalue = [6, 8, 31]\nclass = buy", fillcolor="#b184ef"] ;
1 -> 2 ;
3 [label="SMA_10 <= 0.36\nentropy = 1.464\nsamples = 242\nvalue = [44, 124, 74]\nclass = hold", fillcolor="#c4f7da"] ;
1 -> 3 ;
4 [label="EMA_10 <= 0.325\nentropy = 1.365\nsamples = 134\nvalue = [15, 72, 47]\nclass = hold", fillcolor="#c6f8db"] ;
3 -> 4 ;
5 [label="EMA_10 <= 0.284\nentropy = 1.343\nsamples = 73\nvalue = [15, 45, 13]\nclass = hold", fillcolor="#99f2be"] ;
4 -> 5 ;
6 [label="entropy = 1.424\nsamples = 35\nvalue = [5, 18, 12]\nclass = hold", fillcolor="#cbf8de"] ;
5 -> 6 ;
7 [label="EMA_10 <= 0.286\nentropy = 0.995\nsamples = 38\nvalue = [10, 27, 1]\nclass = hold", fillcolor="#87efb2"] ;
5 -> 7 ;
8 [label="entropy = 0.0\nsamples = 4\nvalue = [4, 0, 0]\nclass = sell", fillcolor="#e58139"] ;
7 -> 8 ;
9 [label="entropy = 0.855\nsamples = 34\nvalue = [6, 27, 1]\nclass = hold", fillcolor="#6beca0"] ;
7 -> 9 ;
10 [label="SMA_10 <= 0.354\nentropy = 0.99\nsamples = 61\nvalue = [0, 27, 34]\nclass = buy", fillcolor="#e5d6fa"] ;
4 -> 10 ;
11 [label="entropy = 0.941\nsamples = 53\nvalue = [0, 19, 34]\nclass = buy", fillcolor="#c7a8f4"] ;
10 -> 11 ;
12 [label="entropy = 0.0\nsamples = 8\nvalue = [0, 8, 0]\nclass = hold", fillcolor="#39e581"] ;
10 -> 12 ;
13 [label="SMA_10 <= 0.364\nentropy = 1.517\nsamples = 108\nvalue = [29, 52, 27]\nclass = hold", fillcolor="#c5f7da"] ;
3 -> 13 ;
14 [label="entropy = 0.977\nsamples = 17\nvalue = [10, 7, 0]\nclass = sell", fillcolor="#f7d9c4"] ;
13 -> 14 ;
15 [label="entropy = 1.494\nsamples = 91\nvalue = [19, 45, 27]\nclass = hold", fillcolor="#c7f8dc"] ;
13 -> 15 ;
16 [label="SMA_10 <= 0.785\nentropy = 1.025\nsamples = 3154\nvalue = [305, 2402, 447]\nclass = hold", fillcolor="#70eca4"] ;
0 -> 16 [labeldistance=2.5, labelangle=-45, headlabel="False"] ;
17 [label="EMA_10 <= 0.752\nentropy = 0.885\nsamples = 1562\nvalue = [136, 1268, 158]\nclass = hold", fillcolor="#62ea9b"] ;
16 -> 17 ;
18 [label="SMA_10 <= 0.435\nentropy = 0.9\nsamples = 1484\nvalue = [129, 1197, 158]\nclass = hold", fillcolor="#64eb9c"] ;
17 -> 18 ;
19 [label="SMA_10 <= 0.407\nentropy = 0.659\nsamples = 210\nvalue = [16, 184, 10]\nclass = hold", fillcolor="#54e892"] ;
18 -> 19 ;
20 [label="entropy = 1.142\nsamples = 54\nvalue = [11, 38, 5]\nclass = hold", fillcolor="#83efb0"] ;
19 -> 20 ;
21 [label="EMA_10 <= 0.431\nentropy = 0.408\nsamples = 156\nvalue = [5, 146, 5]\nclass = hold", fillcolor="#46e789"] ;
19 -> 21 ;
22 [label="entropy = 0.325\nsamples = 117\nvalue = [1, 111, 5]\nclass = hold", fillcolor="#44e688"] ;
21 -> 22 ;
23 [label="SMA_10 <= 0.427\nentropy = 0.477\nsamples = 39\nvalue = [4, 35, 0]\nclass = hold", fillcolor="#50e88f"] ;
21 -> 23 ;
24 [label="entropy = 0.971\nsamples = 5\nvalue = [3, 2, 0]\nclass = sell", fillcolor="#f6d5bd"] ;
23 -> 24 ;
25 [label="entropy = 0.191\nsamples = 34\nvalue = [1, 33, 0]\nclass = hold", fillcolor="#3fe685"] ;
23 -> 25 ;
26 [label="EMA_10 <= 0.47\nentropy = 0.934\nsamples = 1274\nvalue = [113, 1013, 148]\nclass = hold", fillcolor="#67eb9e"] ;
18 -> 26 ;
27 [label="SMA_10 <= 0.441\nentropy = 1.124\nsamples = 211\nvalue = [15, 147, 49]\nclass = hold", fillcolor="#87efb3"] ;
26 -> 27 ;
28 [label="entropy = 0.804\nsamples = 57\nvalue = [0, 43, 14]\nclass = hold", fillcolor="#79edaa"] ;
27 -> 28 ;
29 [label="EMA_10 <= 0.454\nentropy = 1.196\nsamples = 154\nvalue = [15, 104, 35]\nclass = hold", fillcolor="#8cf0b6"] ;
27 -> 29 ;
30 [label="SMA_10 <= 0.457\nentropy = 1.36\nsamples = 71\nvalue = [13, 43, 15]\nclass = hold", fillcolor="#9cf2c0"] ;
29 -> 30 ;
31 [label="entropy = 1.208\nsamples = 62\nvalue = [7, 42, 13]\nclass = hold", fillcolor="#8af0b4"] ;
30 -> 31 ;
32 [label="entropy = 1.224\nsamples = 9\nvalue = [6, 1, 2]\nclass = sell", fillcolor="#f0b78e"] ;
30 -> 32 ;
33 [label="entropy = 0.951\nsamples = 83\nvalue = [2, 61, 20]\nclass = hold", fillcolor="#7eeead"] ;
29 -> 33 ;
34 [label="SMA_10 <= 0.762\nentropy = 0.877\nsamples = 1063\nvalue = [98, 866, 99]\nclass = hold", fillcolor="#61ea9b"] ;
26 -> 34 ;
35 [label="entropy = 0.872\nsamples = 1061\nvalue = [98, 866, 97]\nclass = hold", fillcolor="#61ea9b"] ;
34 -> 35 ;
36 [label="entropy = 0.0\nsamples = 2\nvalue = [0, 0, 2]\nclass = buy", fillcolor="#8139e5"] ;
34 -> 36 ;
37 [label="entropy = 0.436\nsamples = 78\nvalue = [7, 71, 0]\nclass = hold", fillcolor="#4de88d"] ;
17 -> 37 ;
38 [label="EMA_10 <= 0.884\nentropy = 1.139\nsamples = 1592\nvalue = [169, 1134, 289]\nclass = hold", fillcolor="#7feead"] ;
16 -> 38 ;
39 [label="SMA_10 <= 0.827\nentropy = 1.42\nsamples = 94\nvalue = [38, 44, 12]\nclass = hold", fillcolor="#eafcf2"] ;
38 -> 39 ;
40 [label="EMA_10 <= 0.807\nentropy = 1.498\nsamples = 59\nvalue = [27, 21, 11]\nclass = sell", fillcolor="#fbebe0"] ;
39 -> 40 ;
41 [label="entropy = 1.47\nsamples = 41\nvalue = [14, 20, 7]\nclass = hold", fillcolor="#d3f9e3"] ;
40 -> 41 ;
42 [label="entropy = 1.053\nsamples = 18\nvalue = [13, 1, 4]\nclass = sell", fillcolor="#eeae80"] ;
40 -> 42 ;
43 [label="SMA_10 <= 0.858\nentropy = 1.069\nsamples = 35\nvalue = [11, 23, 1]\nclass = hold", fillcolor="#9cf2c0"] ;
39 -> 43 ;
44 [label="entropy = 0.454\nsamples = 21\nvalue = [2, 19, 0]\nclass = hold", fillcolor="#4ee88e"] ;
43 -> 44 ;
45 [label="entropy = 1.198\nsamples = 14\nvalue = [9, 4, 1]\nclass = sell", fillcolor="#f2c09c"] ;
43 -> 45 ;
46 [label="EMA_10 <= 3.621\nentropy = 1.091\nsamples = 1498\nvalue = [131, 1090, 277]\nclass = hold", fillcolor="#7beeab"] ;
38 -> 46 ;
47 [label="EMA_10 <= 1.226\nentropy = 0.995\nsamples = 359\nvalue = [13, 262, 84]\nclass = hold", fillcolor="#7feead"] ;
46 -> 47 ;
48 [label="EMA_10 <= 0.972\nentropy = 0.998\nsamples = 132\nvalue = [13, 102, 17]\nclass = hold", fillcolor="#6deca2"] ;
47 -> 48 ;
49 [label="entropy = 0.983\nsamples = 33\nvalue = [0, 19, 14]\nclass = hold", fillcolor="#cbf8de"] ;
48 -> 49 ;
50 [label="SMA_10 <= 0.981\nentropy = 0.751\nsamples = 99\nvalue = [13, 83, 3]\nclass = hold", fillcolor="#5eea98"] ;
48 -> 50 ;
51 [label="entropy = 1.0\nsamples = 10\nvalue = [5, 5, 0]\nclass = sell", fillcolor="#ffffff"] ;
50 -> 51 ;
52 [label="EMA_10 <= 1.127\nentropy = 0.644\nsamples = 89\nvalue = [8, 78, 3]\nclass = hold", fillcolor="#54e992"] ;
50 -> 52 ;
53 [label="entropy = 0.283\nsamples = 61\nvalue = [0, 58, 3]\nclass = hold", fillcolor="#43e688"] ;
52 -> 53 ;
54 [label="EMA_10 <= 1.145\nentropy = 0.863\nsamples = 28\nvalue = [8, 20, 0]\nclass = hold", fillcolor="#88efb3"] ;
52 -> 54 ;
55 [label="entropy = 0.985\nsamples = 14\nvalue = [8, 6, 0]\nclass = sell", fillcolor="#f8e0ce"] ;
54 -> 55 ;
56 [label="entropy = 0.0\nsamples = 14\nvalue = [0, 14, 0]\nclass = hold", fillcolor="#39e581"] ;
54 -> 56 ;
57 [label="EMA_10 <= 1.233\nentropy = 0.875\nsamples = 227\nvalue = [0, 160, 67]\nclass = hold", fillcolor="#8cf0b6"] ;
47 -> 57 ;
58 [label="entropy = 0.0\nsamples = 6\nvalue = [0, 0, 6]\nclass = buy", fillcolor="#8139e5"] ;
57 -> 58 ;
59 [label="SMA_10 <= 2.372\nentropy = 0.85\nsamples = 221\nvalue = [0, 160, 61]\nclass = hold", fillcolor="#84efb1"] ;
57 -> 59 ;
60 [label="SMA_10 <= 2.139\nentropy = 0.647\nsamples = 133\nvalue = [0, 111, 22]\nclass = hold", fillcolor="#60ea9a"] ;
59 -> 60 ;
61 [label="entropy = 0.777\nsamples = 96\nvalue = [0, 74, 22]\nclass = hold", fillcolor="#74eda6"] ;
60 -> 61 ;
62 [label="entropy = 0.0\nsamples = 37\nvalue = [0, 37, 0]\nclass = hold", fillcolor="#39e581"] ;
60 -> 62 ;
63 [label="SMA_10 <= 2.438\nentropy = 0.991\nsamples = 88\nvalue = [0, 49, 39]\nclass = hold", fillcolor="#d7fae5"] ;
59 -> 63 ;
64 [label="entropy = 0.0\nsamples = 10\nvalue = [0, 0, 10]\nclass = buy", fillcolor="#8139e5"] ;
63 -> 64 ;
65 [label="entropy = 0.952\nsamples = 78\nvalue = [0, 49, 29]\nclass = hold", fillcolor="#aef4cc"] ;
63 -> 65 ;
66 [label="SMA_10 <= 9.917\nentropy = 1.107\nsamples = 1139\nvalue = [118, 828, 193]\nclass = hold", fillcolor="#7aeeaa"] ;
46 -> 66 ;
67 [label="SMA_10 <= 9.02\nentropy = 1.1\nsamples = 791\nvalue = [100, 581, 110]\nclass = hold", fillcolor="#76eda8"] ;
66 -> 67 ;
68 [label="EMA_10 <= 7.381\nentropy = 1.054\nsamples = 723\nvalue = [71, 542, 110]\nclass = hold", fillcolor="#73eda6"] ;
67 -> 68 ;
69 [label="EMA_10 <= 7.251\nentropy = 1.133\nsamples = 494\nvalue = [64, 356, 74]\nclass = hold", fillcolor="#7aeeaa"] ;
68 -> 69 ;
70 [label="SMA_10 <= 6.784\nentropy = 1.066\nsamples = 466\nvalue = [51, 348, 67]\nclass = hold", fillcolor="#74eda6"] ;
69 -> 70 ;
71 [label="EMA_10 <= 6.695\nentropy = 1.12\nsamples = 413\nvalue = [47, 299, 67]\nclass = hold", fillcolor="#7aeeab"] ;
70 -> 71 ;
72 [label="SMA_10 <= 6.241\nentropy = 1.098\nsamples = 399\nvalue = [47, 293, 59]\nclass = hold", fillcolor="#77eda8"] ;
71 -> 72 ;
73 [label="entropy = 1.117\nsamples = 351\nvalue = [38, 254, 59]\nclass = hold", fillcolor="#7beeab"] ;
72 -> 73 ;
74 [label="EMA_10 <= 6.391\nentropy = 0.696\nsamples = 48\nvalue = [9, 39, 0]\nclass = hold", fillcolor="#67eb9e"] ;
72 -> 74 ;
75 [label="entropy = 0.997\nsamples = 15\nvalue = [7, 8, 0]\nclass = hold", fillcolor="#e6fcef"] ;
74 -> 75 ;
76 [label="entropy = 0.33\nsamples = 33\nvalue = [2, 31, 0]\nclass = hold", fillcolor="#46e789"] ;
74 -> 76 ;
77 [label="entropy = 0.985\nsamples = 14\nvalue = [0, 6, 8]\nclass = buy", fillcolor="#e0cef8"] ;
71 -> 77 ;
78 [label="entropy = 0.386\nsamples = 53\nvalue = [4, 49, 0]\nclass = hold", fillcolor="#49e78b"] ;
70 -> 78 ;
79 [label="SMA_10 <= 7.326\nentropy = 1.53\nsamples = 28\nvalue = [13, 8, 7]\nclass = sell", fillcolor="#f8e0ce"] ;
69 -> 79 ;
80 [label="entropy = 0.94\nsamples = 14\nvalue = [9, 5, 0]\nclass = sell", fillcolor="#f3c7a7"] ;
79 -> 80 ;
81 [label="EMA_10 <= 7.323\nentropy = 1.493\nsamples = 14\nvalue = [4, 3, 7]\nclass = buy", fillcolor="#d9c4f7"] ;
79 -> 81 ;
82 [label="entropy = 0.0\nsamples = 6\nvalue = [0, 0, 6]\nclass = buy", fillcolor="#8139e5"] ;
81 -> 82 ;
83 [label="entropy = 1.406\nsamples = 8\nvalue = [4, 3, 1]\nclass = sell", fillcolor="#fae6d7"] ;
81 -> 83 ;
84 [label="EMA_10 <= 8.431\nentropy = 0.817\nsamples = 229\nvalue = [7, 186, 36]\nclass = hold", fillcolor="#65eb9d"] ;
68 -> 84 ;
85 [label="EMA_10 <= 7.909\nentropy = 0.604\nsamples = 122\nvalue = [0, 104, 18]\nclass = hold", fillcolor="#5bea97"] ;
84 -> 85 ;
86 [label="entropy = 0.876\nsamples = 44\nvalue = [0, 31, 13]\nclass = hold", fillcolor="#8cf0b6"] ;
85 -> 86 ;
87 [label="SMA_10 <= 8.437\nentropy = 0.344\nsamples = 78\nvalue = [0, 73, 5]\nclass = hold", fillcolor="#47e78a"] ;
85 -> 87 ;
88 [label="entropy = 0.181\nsamples = 73\nvalue = [0, 71, 2]\nclass = hold", fillcolor="#3fe685"] ;
87 -> 88 ;
89 [label="entropy = 0.971\nsamples = 5\nvalue = [0, 2, 3]\nclass = buy", fillcolor="#d5bdf6"] ;
87 -> 89 ;
90 [label="EMA_10 <= 8.509\nentropy = 0.984\nsamples = 107\nvalue = [7, 82, 18]\nclass = hold", fillcolor="#71eca4"] ;
84 -> 90 ;
91 [label="entropy = 1.481\nsamples = 26\nvalue = [5, 13, 8]\nclass = hold", fillcolor="#c8f8dc"] ;
90 -> 91 ;
92 [label="entropy = 0.701\nsamples = 81\nvalue = [2, 69, 10]\nclass = hold", fillcolor="#5ae996"] ;
90 -> 92 ;
93 [label="entropy = 0.984\nsamples = 68\nvalue = [29, 39, 0]\nclass = hold", fillcolor="#ccf8df"] ;
67 -> 93 ;
94 [label="SMA_10 <= 10.618\nentropy = 1.065\nsamples = 348\nvalue = [18, 247, 83]\nclass = hold", fillcolor="#84efb1"] ;
66 -> 94 ;
95 [label="entropy = 0.65\nsamples = 12\nvalue = [0, 2, 10]\nclass = buy", fillcolor="#9a61ea"] ;
94 -> 95 ;
96 [label="EMA_10 <= 19.049\nentropy = 1.037\nsamples = 336\nvalue = [18, 245, 73]\nclass = hold", fillcolor="#7eeead"] ;
94 -> 96 ;
97 [label="EMA_10 <= 18.488\nentropy = 0.806\nsamples = 210\nvalue = [3, 167, 40]\nclass = hold", fillcolor="#6beca1"] ;
96 -> 97 ;
98 [label="EMA_10 <= 12.723\nentropy = 0.859\nsamples = 176\nvalue = [2, 134, 40]\nclass = hold", fillcolor="#76eda8"] ;
97 -> 98 ;
99 [label="entropy = 0.229\nsamples = 27\nvalue = [0, 26, 1]\nclass = hold", fillcolor="#41e686"] ;
98 -> 99 ;
100 [label="SMA_10 <= 12.838\nentropy = 0.926\nsamples = 149\nvalue = [2, 108, 39]\nclass = hold", fillcolor="#83efb0"] ;
98 -> 100 ;
101 [label="entropy = 0.0\nsamples = 4\nvalue = [0, 0, 4]\nclass = buy", fillcolor="#8139e5"] ;
100 -> 101 ;
102 [label="entropy = 0.897\nsamples = 145\nvalue = [2, 108, 35]\nclass = hold", fillcolor="#7ceeab"] ;
100 -> 102 ;
103 [label="entropy = 0.191\nsamples = 34\nvalue = [1, 33, 0]\nclass = hold", fillcolor="#3fe685"] ;
97 -> 103 ;
104 [label="SMA_10 <= 20.519\nentropy = 1.3\nsamples = 126\nvalue = [15, 78, 33]\nclass = hold", fillcolor="#9ff2c2"] ;
96 -> 104 ;
105 [label="EMA_10 <= 19.594\nentropy = 1.57\nsamples = 35\nvalue = [11, 10, 14]\nclass = buy", fillcolor="#efe6fc"] ;
104 -> 105 ;
106 [label="entropy = 0.991\nsamples = 9\nvalue = [4, 5, 0]\nclass = hold", fillcolor="#d7fae6"] ;
105 -> 106 ;
107 [label="EMA_10 <= 19.991\nentropy = 1.448\nsamples = 26\nvalue = [7, 5, 14]\nclass = buy", fillcolor="#d1b6f5"] ;
105 -> 107 ;
108 [label="entropy = 0.845\nsamples = 11\nvalue = [0, 3, 8]\nclass = buy", fillcolor="#b083ef"] ;
107 -> 108 ;
109 [label="EMA_10 <= 20.174\nentropy = 1.429\nsamples = 15\nvalue = [7, 2, 6]\nclass = sell", fillcolor="#fcf1e9"] ;
107 -> 109 ;
110 [label="entropy = 0.592\nsamples = 7\nvalue = [6, 1, 0]\nclass = sell", fillcolor="#e9965a"] ;
109 -> 110 ;
111 [label="entropy = 1.061\nsamples = 8\nvalue = [1, 1, 6]\nclass = buy", fillcolor="#a572ec"] ;
109 -> 111 ;
112 [label="EMA_10 <= 27.598\nentropy = 0.984\nsamples = 91\nvalue = [4, 68, 19]\nclass = hold", fillcolor="#78eda9"] ;
104 -> 112 ;
113 [label="EMA_10 <= 21.007\nentropy = 1.125\nsamples = 71\nvalue = [4, 48, 19]\nclass = hold", fillcolor="#91f0b9"] ;
112 -> 113 ;
114 [label="entropy = 0.0\nsamples = 14\nvalue = [0, 14, 0]\nclass = hold", fillcolor="#39e581"] ;
113 -> 114 ;
115 [label="EMA_10 <= 21.061\nentropy = 1.242\nsamples = 57\nvalue = [4, 34, 19]\nclass = hold", fillcolor="#b1f5cd"] ;
113 -> 115 ;
116 [label="entropy = 0.0\nsamples = 2\nvalue = [2, 0, 0]\nclass = sell", fillcolor="#e58139"] ;
115 -> 116 ;
117 [label="entropy = 1.133\nsamples = 55\nvalue = [2, 34, 19]\nclass = hold", fillcolor="#acf4ca"] ;
115 -> 117 ;
118 [label="entropy = 0.0\nsamples = 20\nvalue = [0, 20, 0]\nclass = hold", fillcolor="#39e581"] ;
112 -> 118 ;
}